digraph Tree {
node [shape=box] ;
0 [label="X[19] <= 1080946688.0\ngini = 0.5\nsamples = 510\nvalue = [250, 260]"] ;
1 [label="X[7] <= 386723776.0\ngini = 0.498\nsamples = 403\nvalue = [214, 189]"] ;
0 -> 1 [labeldistance=2.5, labelangle=45, headlabel="True"] ;
2 [label="X[9] <= 1281349888.0\ngini = 0.365\nsamples = 50\nvalue = [38, 12]"] ;
1 -> 2 ;
3 [label="X[1] <= 1085200384.0\ngini = 0.31\nsamples = 47\nvalue = [38, 9]"] ;
2 -> 3 ;
4 [label="X[17] <= 1214752000.0\ngini = 0.184\nsamples = 39\nvalue = [35, 4]"] ;
3 -> 4 ;
5 [label="X[5] <= 191212352.0\ngini = 0.145\nsamples = 38\nvalue = [35, 3]"] ;
4 -> 5 ;
6 [label="gini = 0.0\nsamples = 1\nvalue = [0, 1]"] ;
5 -> 6 ;
7 [label="X[15] <= 1007127040.0\ngini = 0.102\nsamples = 37\nvalue = [35, 2]"] ;
5 -> 7 ;
8 [label="gini = 0.0\nsamples = 31\nvalue = [31, 0]"] ;
7 -> 8 ;
9 [label="gini = 0.444\nsamples = 6\nvalue = [4, 2]"] ;
7 -> 9 ;
10 [label="gini = 0.0\nsamples = 1\nvalue = [0, 1]"] ;
4 -> 10 ;
11 [label="X[6] <= 897229952.0\ngini = 0.469\nsamples = 8\nvalue = [3, 5]"] ;
3 -> 11 ;
12 [label="gini = 0.0\nsamples = 4\nvalue = [0, 4]"] ;
11 -> 12 ;
13 [label="X[9] <= 896530496.0\ngini = 0.375\nsamples = 4\nvalue = [3, 1]"] ;
11 -> 13 ;
14 [label="gini = 0.0\nsamples = 3\nvalue = [3, 0]"] ;
13 -> 14 ;
15 [label="gini = 0.0\nsamples = 1\nvalue = [0, 1]"] ;
13 -> 15 ;
16 [label="gini = 0.0\nsamples = 3\nvalue = [0, 3]"] ;
2 -> 16 ;
17 [label="X[11] <= 1336672256.0\ngini = 0.5\nsamples = 353\nvalue = [176, 177]"] ;
1 -> 17 ;
18 [label="X[2] <= 343647808.0\ngini = 0.499\nsamples = 340\nvalue = [164, 176]"] ;
17 -> 18 ;
19 [label="X[19] <= 806112192.0\ngini = 0.342\nsamples = 32\nvalue = [7, 25]"] ;
18 -> 19 ;
20 [label="gini = 0.0\nsamples = 17\nvalue = [0, 17]"] ;
19 -> 20 ;
21 [label="X[8] <= 894574976.0\ngini = 0.498\nsamples = 15\nvalue = [7, 8]"] ;
19 -> 21 ;
22 [label="X[3] <= 771246656.0\ngini = 0.32\nsamples = 10\nvalue = [2, 8]"] ;
21 -> 22 ;
23 [label="gini = 0.0\nsamples = 1\nvalue = [1, 0]"] ;
22 -> 23 ;
24 [label="gini = 0.198\nsamples = 9\nvalue = [1, 8]"] ;
22 -> 24 ;
25 [label="gini = 0.0\nsamples = 5\nvalue = [5, 0]"] ;
21 -> 25 ;
26 [label="X[12] <= 236159072.0\ngini = 0.5\nsamples = 308\nvalue = [157, 151]"] ;
18 -> 26 ;
27 [label="gini = 0.0\nsamples = 8\nvalue = [8, 0]"] ;
26 -> 27 ;
28 [label="X[15] <= 293831104.0\ngini = 0.5\nsamples = 300\nvalue = [149, 151]"] ;
26 -> 28 ;
29 [label="X[5] <= 1295487104.0\ngini = 0.231\nsamples = 15\nvalue = [2, 13]"] ;
28 -> 29 ;
30 [label="gini = 0.133\nsamples = 14\nvalue = [1, 13]"] ;
29 -> 30 ;
31 [label="gini = 0.0\nsamples = 1\nvalue = [1, 0]"] ;
29 -> 31 ;
32 [label="X[11] <= 918677888.0\ngini = 0.5\nsamples = 285\nvalue = [147, 138]"] ;
28 -> 32 ;
33 [label="gini = 0.494\nsamples = 164\nvalue = [73, 91]"] ;
32 -> 33 ;
34 [label="gini = 0.475\nsamples = 121\nvalue = [74, 47]"] ;
32 -> 34 ;
35 [label="X[15] <= 462198528.0\ngini = 0.142\nsamples = 13\nvalue = [12, 1]"] ;
17 -> 35 ;
36 [label="gini = 0.0\nsamples = 1\nvalue = [0, 1]"] ;
35 -> 36 ;
37 [label="gini = 0.0\nsamples = 12\nvalue = [12, 0]"] ;
35 -> 37 ;
38 [label="X[0] <= 475709184.0\ngini = 0.447\nsamples = 107\nvalue = [36, 71]"] ;
0 -> 38 [labeldistance=2.5, labelangle=-45, headlabel="False"] ;
39 [label="X[2] <= 1093208832.0\ngini = 0.292\nsamples = 45\nvalue = [8, 37]"] ;
38 -> 39 ;
40 [label="X[9] <= 300194176.0\ngini = 0.184\nsamples = 39\nvalue = [4, 35]"] ;
39 -> 40 ;
41 [label="X[10] <= 1111915264.0\ngini = 0.444\nsamples = 3\nvalue = [2, 1]"] ;
40 -> 41 ;
42 [label="gini = 0.0\nsamples = 2\nvalue = [2, 0]"] ;
41 -> 42 ;
43 [label="gini = 0.0\nsamples = 1\nvalue = [0, 1]"] ;
41 -> 43 ;
44 [label="X[6] <= 198416896.0\ngini = 0.105\nsamples = 36\nvalue = [2, 34]"] ;
40 -> 44 ;
45 [label="gini = 0.0\nsamples = 1\nvalue = [1, 0]"] ;
44 -> 45 ;
46 [label="X[15] <= 1279640320.0\ngini = 0.056\nsamples = 35\nvalue = [1, 34]"] ;
44 -> 46 ;
47 [label="gini = 0.0\nsamples = 33\nvalue = [0, 33]"] ;
46 -> 47 ;
48 [label="X[16] <= 690079104.0\ngini = 0.5\nsamples = 2\nvalue = [1, 1]"] ;
46 -> 48 ;
49 [label="gini = 0.0\nsamples = 1\nvalue = [1, 0]"] ;
48 -> 49 ;
50 [label="gini = 0.0\nsamples = 1\nvalue = [0, 1]"] ;
48 -> 50 ;
51 [label="X[20] <= 888885504.0\ngini = 0.444\nsamples = 6\nvalue = [4, 2]"] ;
39 -> 51 ;
52 [label="gini = 0.0\nsamples = 2\nvalue = [0, 2]"] ;
51 -> 52 ;
53 [label="gini = 0.0\nsamples = 4\nvalue = [4, 0]"] ;
51 -> 53 ;
54 [label="X[12] <= 591325568.0\ngini = 0.495\nsamples = 62\nvalue = [28, 34]"] ;
38 -> 54 ;
55 [label="X[16] <= 266438112.0\ngini = 0.298\nsamples = 22\nvalue = [4, 18]"] ;
54 -> 55 ;
56 [label="gini = 0.0\nsamples = 2\nvalue = [2, 0]"] ;
55 -> 56 ;
57 [label="X[22] <= 279484224.0\ngini = 0.18\nsamples = 20\nvalue = [2, 18]"] ;
55 -> 57 ;
58 [label="gini = 0.0\nsamples = 2\nvalue = [2, 0]"] ;
57 -> 58 ;
59 [label="gini = 0.0\nsamples = 18\nvalue = [0, 18]"] ;
57 -> 59 ;
60 [label="X[15] <= 1116518272.0\ngini = 0.48\nsamples = 40\nvalue = [24, 16]"] ;
54 -> 60 ;
61 [label="X[1] <= 1052548736.0\ngini = 0.431\nsamples = 35\nvalue = [24, 11]"] ;
60 -> 61 ;
62 [label="X[15] <= 320609600.0\ngini = 0.311\nsamples = 26\nvalue = [21, 5]"] ;
61 -> 62 ;
63 [label="gini = 0.0\nsamples = 2\nvalue = [0, 2]"] ;
62 -> 63 ;
64 [label="X[10] <= 410241408.0\ngini = 0.219\nsamples = 24\nvalue = [21, 3]"] ;
62 -> 64 ;
65 [label="gini = 0.444\nsamples = 3\nvalue = [1, 2]"] ;
64 -> 65 ;
66 [label="gini = 0.091\nsamples = 21\nvalue = [20, 1]"] ;
64 -> 66 ;
67 [label="X[7] <= 1003890944.0\ngini = 0.444\nsamples = 9\nvalue = [3, 6]"] ;
61 -> 67 ;
68 [label="gini = 0.0\nsamples = 6\nvalue = [0, 6]"] ;
67 -> 68 ;
69 [label="gini = 0.0\nsamples = 3\nvalue = [3, 0]"] ;
67 -> 69 ;
70 [label="gini = 0.0\nsamples = 5\nvalue = [0, 5]"] ;
60 -> 70 ;
}