if ( "10" <= 297598272.0 ) :
if ( "12" <= 1184579968.0 ) :
if ( "10" <= 117888384.0 ) :
if ( "13" <= 704363200.0 ) :
return [[0. 1.]]
 else :
return [[2. 0.]]
 else :
return [[ 0. 20.]]
 else :
return [[2. 0.]]
 else :
if ( "11" <= 168933216.0 ) :
return [[10.  0.]]
 else :
if ( "7" <= 697370752.0 ) :
if ( "11" <= 734460224.0 ) :
if ( "19" <= 1201644416.0 ) :
if ( "1" <= 1090163968.0 ) :
return [[49. 11.]]
 else :
return [[0. 3.]]
 else :
return [[0. 3.]]
 else :
if ( "21" <= 740409728.0 ) :
if ( "5" <= 328779904.0 ) :
return [[0. 4.]]
 else :
return [[31. 10.]]
 else :
if ( "17" <= 661659136.0 ) :
return [[ 3. 21.]]
 else :
return [[25. 25.]]
 else :
if ( "11" <= 918672512.0 ) :
if ( "6" <= 487684480.0 ) :
if ( "10" <= 1012612352.0 ) :
return [[ 6. 10.]]
 else :
return [[12.  2.]]
 else :
if ( "18" <= 1099543808.0 ) :
return [[24. 72.]]
 else :
return [[14. 13.]]
 else :
if ( "16" <= 900526400.0 ) :
if ( "1" <= 924631616.0 ) :
return [[15. 16.]]
 else :
return [[32.  7.]]
 else :
if ( "6" <= 987548416.0 ) :
return [[ 8. 28.]]
 else :
return [[20. 11.]]






Graph :
digraph Tree {
node [shape=box] ;
0 [label="X[10] <= 297598272.0\ngini = 0.5\nsamples = 510\nvalue = [253, 257]"] ;
1 [label="X[12] <= 1184579968.0\ngini = 0.269\nsamples = 25\nvalue = [4, 21]"] ;
0 -> 1 [labeldistance=2.5, labelangle=45, headlabel="True"] ;
2 [label="X[10] <= 117888384.0\ngini = 0.159\nsamples = 23\nvalue = [2, 21]"] ;
1 -> 2 ;
3 [label="X[13] <= 704363200.0\ngini = 0.444\nsamples = 3\nvalue = [2, 1]"] ;
2 -> 3 ;
4 [label="gini = 0.0\nsamples = 1\nvalue = [0, 1]"] ;
3 -> 4 ;
5 [label="gini = 0.0\nsamples = 2\nvalue = [2, 0]"] ;
3 -> 5 ;
6 [label="gini = 0.0\nsamples = 20\nvalue = [0, 20]"] ;
2 -> 6 ;
7 [label="gini = 0.0\nsamples = 2\nvalue = [2, 0]"] ;
1 -> 7 ;
8 [label="X[11] <= 168933216.0\ngini = 0.5\nsamples = 485\nvalue = [249, 236]"] ;
0 -> 8 [labeldistance=2.5, labelangle=-45, headlabel="False"] ;
9 [label="gini = 0.0\nsamples = 10\nvalue = [10, 0]"] ;
8 -> 9 ;
10 [label="X[7] <= 697370752.0\ngini = 0.5\nsamples = 475\nvalue = [239, 236]"] ;
8 -> 10 ;
11 [label="X[11] <= 734460224.0\ngini = 0.486\nsamples = 185\nvalue = [108, 77]"] ;
10 -> 11 ;
12 [label="X[19] <= 1201644416.0\ngini = 0.382\nsamples = 66\nvalue = [49, 17]"] ;
11 -> 12 ;
13 [label="X[1] <= 1090163968.0\ngini = 0.346\nsamples = 63\nvalue = [49, 14]"] ;
12 -> 13 ;
14 [label="gini = 0.299\nsamples = 60\nvalue = [49, 11]"] ;
13 -> 14 ;
15 [label="gini = 0.0\nsamples = 3\nvalue = [0, 3]"] ;
13 -> 15 ;
16 [label="gini = 0.0\nsamples = 3\nvalue = [0, 3]"] ;
12 -> 16 ;
17 [label="X[21] <= 740409728.0\ngini = 0.5\nsamples = 119\nvalue = [59, 60]"] ;
11 -> 17 ;
18 [label="X[5] <= 328779904.0\ngini = 0.429\nsamples = 45\nvalue = [31, 14]"] ;
17 -> 18 ;
19 [label="gini = 0.0\nsamples = 4\nvalue = [0, 4]"] ;
18 -> 19 ;
20 [label="gini = 0.369\nsamples = 41\nvalue = [31, 10]"] ;
18 -> 20 ;
21 [label="X[17] <= 661659136.0\ngini = 0.47\nsamples = 74\nvalue = [28, 46]"] ;
17 -> 21 ;
22 [label="gini = 0.219\nsamples = 24\nvalue = [3, 21]"] ;
21 -> 22 ;
23 [label="gini = 0.5\nsamples = 50\nvalue = [25, 25]"] ;
21 -> 23 ;
24 [label="X[11] <= 918672512.0\ngini = 0.495\nsamples = 290\nvalue = [131, 159]"] ;
10 -> 24 ;
25 [label="X[6] <= 487684480.0\ngini = 0.464\nsamples = 153\nvalue = [56, 97]"] ;
24 -> 25 ;
26 [label="X[10] <= 1012612352.0\ngini = 0.48\nsamples = 30\nvalue = [18, 12]"] ;
25 -> 26 ;
27 [label="gini = 0.469\nsamples = 16\nvalue = [6, 10]"] ;
26 -> 27 ;
28 [label="gini = 0.245\nsamples = 14\nvalue = [12, 2]"] ;
26 -> 28 ;
29 [label="X[18] <= 1099543808.0\ngini = 0.427\nsamples = 123\nvalue = [38, 85]"] ;
25 -> 29 ;
30 [label="gini = 0.375\nsamples = 96\nvalue = [24, 72]"] ;
29 -> 30 ;
31 [label="gini = 0.499\nsamples = 27\nvalue = [14, 13]"] ;
29 -> 31 ;
32 [label="X[16] <= 900526400.0\ngini = 0.495\nsamples = 137\nvalue = [75, 62]"] ;
24 -> 32 ;
33 [label="X[1] <= 924631616.0\ngini = 0.441\nsamples = 70\nvalue = [47, 23]"] ;
32 -> 33 ;
34 [label="gini = 0.499\nsamples = 31\nvalue = [15, 16]"] ;
33 -> 34 ;
35 [label="gini = 0.295\nsamples = 39\nvalue = [32, 7]"] ;
33 -> 35 ;
36 [label="X[6] <= 987548416.0\ngini = 0.487\nsamples = 67\nvalue = [28, 39]"] ;
32 -> 36 ;
37 [label="gini = 0.346\nsamples = 36\nvalue = [8, 28]"] ;
36 -> 37 ;
38 [label="gini = 0.458\nsamples = 31\nvalue = [20, 11]"] ;
36 -> 38 ;
}